{
    "sizes": [
        42,
        21,
        2
    ],
    "layers": [
        {
            "0": {},
            "1": {},
            "2": {},
            "3": {},
            "4": {},
            "5": {},
            "6": {},
            "7": {},
            "8": {},
            "9": {},
            "10": {},
            "11": {},
            "12": {},
            "13": {},
            "14": {},
            "15": {},
            "16": {},
            "17": {},
            "18": {},
            "19": {},
            "20": {},
            "21": {},
            "22": {},
            "23": {},
            "24": {},
            "25": {},
            "26": {},
            "27": {},
            "28": {},
            "29": {},
            "30": {},
            "31": {},
            "32": {},
            "33": {},
            "34": {},
            "35": {},
            "36": {},
            "37": {},
            "38": {},
            "39": {},
            "40": {},
            "41": {}
        },
        {
            "0": {
                "bias": -0.2386152744293213,
                "weights": {
                    "0": -0.6431190967559814,
                    "1": -0.3376406133174896,
                    "2": -0.28199779987335205,
                    "3": 0.39028069376945496,
                    "4": -0.5051952600479126,
                    "5": 0.4393552541732788,
                    "6": -0.2843080461025238,
                    "7": 0.39876994490623474,
                    "8": -0.21906551718711853,
                    "9": -0.18438638746738434,
                    "10": 0.1549079269170761,
                    "11": -0.11004380881786346,
                    "12": 0.2346736192703247,
                    "13": 0.10332763940095901,
                    "14": -0.25898483395576477,
                    "15": 0.7345787882804871,
                    "16": -0.3396921753883362,
                    "17": 0.034750796854496,
                    "18": 0.018382590264081955,
                    "19": -0.7102916240692139,
                    "20": -0.13576650619506836,
                    "21": -0.27427971363067627,
                    "22": -0.12454096972942352,
                    "23": 0.24646584689617157,
                    "24": 0.07062013447284698,
                    "25": 0.06174600496888161,
                    "26": 0.11085262894630432,
                    "27": -0.14290501177310944,
                    "28": 0.36024364829063416,
                    "29": 0.3613888919353485,
                    "30": 0.05287688970565796,
                    "31": -0.13387447595596313,
                    "32": 0.11112027615308762,
                    "33": 0.5648085474967957,
                    "34": 0.16800294816493988,
                    "35": 0.10640512406826019,
                    "36": 0.07744065672159195,
                    "37": -0.4948711395263672,
                    "38": 0.26518088579177856,
                    "39": -0.04960610345005989,
                    "40": 0.26543155312538147,
                    "41": -0.25066325068473816
                }
            },
            "1": {
                "bias": -0.12326614558696747,
                "weights": {
                    "0": 0.582054078578949,
                    "1": -0.21402302384376526,
                    "2": 0.26717329025268555,
                    "3": -0.6061907410621643,
                    "4": 0.10238666087388992,
                    "5": -0.5635530948638916,
                    "6": 0.1408935785293579,
                    "7": -0.5513797402381897,
                    "8": 0.18130594491958618,
                    "9": -0.02543971687555313,
                    "10": 0.0880759060382843,
                    "11": -0.22469425201416016,
                    "12": -0.33440646529197693,
                    "13": -0.190692737698555,
                    "14": 0.24386364221572876,
                    "15": -0.5513135194778442,
                    "16": 0.2612242102622986,
                    "17": 0.2912795841693878,
                    "18": 0.05101194977760315,
                    "19": 0.11521372199058533,
                    "20": 0.35455334186553955,
                    "21": -0.20494896173477173,
                    "22": 0.2611082196235657,
                    "23": -0.323457270860672,
                    "24": 0.177159383893013,
                    "25": -0.41442322731018066,
                    "26": 0.07633429020643234,
                    "27": -0.16324295103549957,
                    "28": -0.20383307337760925,
                    "29": -0.20183995366096497,
                    "30": -0.09916038066148758,
                    "31": -0.26465538144111633,
                    "32": -0.26179829239845276,
                    "33": -0.3368070721626282,
                    "34": -0.005125762894749641,
                    "35": -0.0806424468755722,
                    "36": -0.10507668554782867,
                    "37": 0.4007256031036377,
                    "38": -0.0320381261408329,
                    "39": -0.27516940236091614,
                    "40": -0.21181774139404297,
                    "41": 0.01833488792181015
                }
            },
            "2": {
                "bias": -0.17745241522789001,
                "weights": {
                    "0": -0.2958779036998749,
                    "1": -0.264391154050827,
                    "2": -0.1882597655057907,
                    "3": -0.07186095416545868,
                    "4": -0.1411220133304596,
                    "5": 0.16753114759922028,
                    "6": -0.2602199614048004,
                    "7": -0.18629445135593414,
                    "8": -0.1144956722855568,
                    "9": -0.2540828585624695,
                    "10": 0.023964542895555496,
                    "11": -0.212079718708992,
                    "12": -0.11681061238050461,
                    "13": -0.24749915301799774,
                    "14": -0.09840850532054901,
                    "15": 0.16430054605007172,
                    "16": 0.07383359968662262,
                    "17": 0.15485240519046783,
                    "18": -0.11068576574325562,
                    "19": -0.25107353925704956,
                    "20": -0.08948918431997299,
                    "21": -0.0636708065867424,
                    "22": -0.2532739043235779,
                    "23": 0.1222938671708107,
                    "24": -0.23571139574050903,
                    "25": -0.06371414661407471,
                    "26": -0.024490555748343468,
                    "27": -0.2846645712852478,
                    "28": -0.03496839106082916,
                    "29": 0.09800886362791061,
                    "30": -0.179228276014328,
                    "31": -0.18859580159187317,
                    "32": -0.17908617854118347,
                    "33": 0.08621454983949661,
                    "34": -0.2582414150238037,
                    "35": 0.013046245090663433,
                    "36": 0.09077885001897812,
                    "37": -0.20038001239299774,
                    "38": 0.043875835835933685,
                    "39": 0.08790162950754166,
                    "40": -0.03015931136906147,
                    "41": -0.18438281118869781
                }
            },
            "3": {
                "bias": -0.18762660026550293,
                "weights": {
                    "0": 1.0579618215560913,
                    "1": 0.9129785895347595,
                    "2": -0.04443984106183052,
                    "3": -0.2665369212627411,
                    "4": 0.24479803442955017,
                    "5": -0.9655475616455078,
                    "6": 0.3950968384742737,
                    "7": -0.705750584602356,
                    "8": -0.1839403361082077,
                    "9": 0.16158725321292877,
                    "10": -0.8580199480056763,
                    "11": 0.7073453068733215,
                    "12": -1.1959174871444702,
                    "13": 0.39462319016456604,
                    "14": -0.1747928410768509,
                    "15": -0.845378041267395,
                    "16": 0.4797326326370239,
                    "17": 0.7298198938369751,
                    "18": 0.08336755633354187,
                    "19": 1.5695968866348267,
                    "20": 0.4024728834629059,
                    "21": -0.07227181643247604,
                    "22": 0.004030302166938782,
                    "23": -0.4202931821346283,
                    "24": -0.2916593551635742,
                    "25": 0.17752507328987122,
                    "26": -0.7571378946304321,
                    "27": 0.2678833603858948,
                    "28": -1.4156204462051392,
                    "29": -0.16243726015090942,
                    "30": -1.206918716430664,
                    "31": 0.38284727931022644,
                    "32": -1.1501350402832031,
                    "33": -0.29386457800865173,
                    "34": -0.47378209233283997,
                    "35": 0.5616903901100159,
                    "36": -0.1600949764251709,
                    "37": 2.0832488536834717,
                    "38": -0.9582824110984802,
                    "39": 0.33712077140808105,
                    "40": -1.094836950302124,
                    "41": 0.992015540599823
                }
            },
            "4": {
                "bias": 0.04327008128166199,
                "weights": {
                    "0": 0.9100817441940308,
                    "1": 0.2196393758058548,
                    "2": 0.13771015405654907,
                    "3": -0.45268937945365906,
                    "4": 0.4936946630477905,
                    "5": -0.8303430676460266,
                    "6": 0.48070916533470154,
                    "7": -0.5424761176109314,
                    "8": -0.029789205640554428,
                    "9": 0.0028510824777185917,
                    "10": 0.024070952087640762,
                    "11": 0.08065412193536758,
                    "12": -0.5252628326416016,
                    "13": 0.19548115134239197,
                    "14": 0.1745208203792572,
                    "15": -0.7186694741249084,
                    "16": 0.6129027605056763,
                    "17": 0.09991222620010376,
                    "18": 0.33824700117111206,
                    "19": 0.4386191964149475,
                    "20": 0.39474135637283325,
                    "21": -0.3006705343723297,
                    "22": 0.1967335343360901,
                    "23": -0.4282933175563812,
                    "24": 0.08332901448011398,
                    "25": -0.3794839382171631,
                    "26": -0.29150062799453735,
                    "27": -0.22946906089782715,
                    "28": -0.45933640003204346,
                    "29": -0.5461195111274719,
                    "30": -0.3025517165660858,
                    "31": 0.023491980507969856,
                    "32": -0.5384284853935242,
                    "33": -0.29813337326049805,
                    "34": -0.14107275009155273,
                    "35": 0.28074342012405396,
                    "36": -0.10247351229190826,
                    "37": 0.658024251461029,
                    "38": -0.4032737910747528,
                    "39": -0.25054967403411865,
                    "40": -0.4338141083717346,
                    "41": 0.321492075920105
                }
            },
            "5": {
                "bias": -0.25084832310676575,
                "weights": {
                    "0": 0.045635223388671875,
                    "1": 0.13797448575496674,
                    "2": -0.14344103634357452,
                    "3": -0.2134111523628235,
                    "4": -0.21133923530578613,
                    "5": -0.051404133439064026,
                    "6": -0.0889391377568245,
                    "7": -0.2997954189777374,
                    "8": -0.1559441089630127,
                    "9": -0.10804752260446548,
                    "10": -0.1780470609664917,
                    "11": 0.07938025891780853,
                    "12": -0.08651367574930191,
                    "13": -0.08145216852426529,
                    "14": 0.04540291428565979,
                    "15": 0.039142217487096786,
                    "16": -0.12322774529457092,
                    "17": 0.03905818983912468,
                    "18": -0.04708970710635185,
                    "19": -0.05963439866900444,
                    "20": -0.017205309122800827,
                    "21": -0.2703775465488434,
                    "22": -0.26477575302124023,
                    "23": -0.25335821509361267,
                    "24": -0.04838510975241661,
                    "25": 0.013136790134012699,
                    "26": -0.27686581015586853,
                    "27": -0.18364104628562927,
                    "28": -0.2777751088142395,
                    "29": -0.2520325481891632,
                    "30": -0.18637757003307343,
                    "31": -0.10462409257888794,
                    "32": -0.29191258549690247,
                    "33": 0.1046237200498581,
                    "34": -0.3277122676372528,
                    "35": -0.08148734271526337,
                    "36": -0.2622276842594147,
                    "37": 0.22835150361061096,
                    "38": -0.20570366084575653,
                    "39": -0.0428721159696579,
                    "40": -0.24585647881031036,
                    "41": 0.07263385504484177
                }
            },
            "6": {
                "bias": 0.3119026720523834,
                "weights": {
                    "0": 1.4319307804107666,
                    "1": 0.5165099501609802,
                    "2": 0.41965028643608093,
                    "3": -0.8080228567123413,
                    "4": 0.6940687298774719,
                    "5": -1.4501805305480957,
                    "6": 0.9356889128684998,
                    "7": -0.8016811609268188,
                    "8": 0.4193195104598999,
                    "9": -0.10960505157709122,
                    "10": -0.16974930465221405,
                    "11": 0.3644804060459137,
                    "12": -0.7175188064575195,
                    "13": 0.054312389343976974,
                    "14": 0.31586647033691406,
                    "15": -1.315729022026062,
                    "16": 0.8652989864349365,
                    "17": 0.6103922724723816,
                    "18": 0.3446289598941803,
                    "19": 1.1450077295303345,
                    "20": 0.6826231479644775,
                    "21": -0.4982665479183197,
                    "22": 0.32183748483657837,
                    "23": -0.8667839765548706,
                    "24": 0.30689045786857605,
                    "25": -0.19720786809921265,
                    "26": -0.19444863498210907,
                    "27": -0.2130991369485855,
                    "28": -1.0663249492645264,
                    "29": -0.5627038478851318,
                    "30": -0.5907196402549744,
                    "31": 0.08694680780172348,
                    "32": -0.7852929830551147,
                    "33": -0.6842395067214966,
                    "34": -0.27988529205322266,
                    "35": 0.20276124775409698,
                    "36": -0.0840797945857048,
                    "37": 1.1478197574615479,
                    "38": -0.41005733609199524,
                    "39": -0.22161206603050232,
                    "40": -0.7115841507911682,
                    "41": 0.6918052434921265
                }
            },
            "7": {
                "bias": -0.2373826950788498,
                "weights": {
                    "0": 0.44347429275512695,
                    "1": 0.6972841620445251,
                    "2": 0.05870479717850685,
                    "3": -0.21449214220046997,
                    "4": -0.16266073286533356,
                    "5": -0.6453335285186768,
                    "6": 0.1478338986635208,
                    "7": -0.1808510571718216,
                    "8": -0.4186561703681946,
                    "9": 0.17611050605773926,
                    "10": -0.6859135627746582,
                    "11": 0.2640933394432068,
                    "12": -0.7722151279449463,
                    "13": 0.1718430519104004,
                    "14": -0.4532552659511566,
                    "15": -0.37262359261512756,
                    "16": 0.08493359386920929,
                    "17": 0.5866089463233948,
                    "18": 0.06501120328903198,
                    "19": 0.9364514350891113,
                    "20": 0.15941624343395233,
                    "21": 0.0932675302028656,
                    "22": -0.007319025695323944,
                    "23": -0.07827869057655334,
                    "24": -0.22818204760551453,
                    "25": 0.21113324165344238,
                    "26": -0.6589190363883972,
                    "27": 0.21556805074214935,
                    "28": -0.9027121663093567,
                    "29": -0.07715259492397308,
                    "30": -0.718924343585968,
                    "31": 0.2900846004486084,
                    "32": -0.7038167119026184,
                    "33": -0.09496860206127167,
                    "34": -0.30110812187194824,
                    "35": 0.6165603995323181,
                    "36": -0.22852888703346252,
                    "37": 1.378806233406067,
                    "38": -0.7369027733802795,
                    "39": 0.14887967705726624,
                    "40": -1.0422013998031616,
                    "41": 0.6706710457801819
                }
            },
            "8": {
                "bias": -0.17787063121795654,
                "weights": {
                    "0": -3.615396022796631,
                    "1": -1.6543539762496948,
                    "2": -1.255853533744812,
                    "3": 1.249923825263977,
                    "4": -1.735898494720459,
                    "5": 3.173693895339966,
                    "6": -2.036107063293457,
                    "7": 2.097224473953247,
                    "8": -0.5301725268363953,
                    "9": -0.4243767261505127,
                    "10": 0.5518561005592346,
                    "11": -0.8468976020812988,
                    "12": 1.7415306568145752,
                    "13": -0.194047212600708,
                    "14": -0.7532121539115906,
                    "15": 2.83929181098938,
                    "16": -2.414480209350586,
                    "17": -1.3336910009384155,
                    "18": -0.48866090178489685,
                    "19": -3.23464035987854,
                    "20": -1.430523157119751,
                    "21": 0.6017273664474487,
                    "22": -1.006621241569519,
                    "23": 1.6964590549468994,
                    "24": -0.3546547293663025,
                    "25": 0.3408740758895874,
                    "26": 0.30460816621780396,
                    "27": 0.04286803677678108,
                    "28": 2.2864084243774414,
                    "29": 0.8961272239685059,
                    "30": 2.12044358253479,
                    "31": -0.7989335060119629,
                    "32": 2.090191602706909,
                    "33": 2.286578416824341,
                    "34": 1.1415730714797974,
                    "35": -0.21955515444278717,
                    "36": -0.05359271168708801,
                    "37": -3.3446481227874756,
                    "38": 0.9823035001754761,
                    "39": 0.36614611744880676,
                    "40": 1.9031744003295898,
                    "41": -2.1343321800231934
                }
            },
            "9": {
                "bias": -0.06659556925296783,
                "weights": {
                    "0": 0.6497113108634949,
                    "1": 0.17970404028892517,
                    "2": 0.006171843968331814,
                    "3": -0.041887640953063965,
                    "4": 0.13412508368492126,
                    "5": -0.5368763208389282,
                    "6": 0.2245946079492569,
                    "7": -0.41139405965805054,
                    "8": 0.02292812615633011,
                    "9": 0.10274820774793625,
                    "10": -0.30718082189559937,
                    "11": 0.25731685757637024,
                    "12": -0.4707340896129608,
                    "13": 0.16397719085216522,
                    "14": -0.2831345200538635,
                    "15": -0.35289129614830017,
                    "16": 0.33973315358161926,
                    "17": 0.4919734299182892,
                    "18": 0.1560615450143814,
                    "19": 0.7365619540214539,
                    "20": 0.11947959661483765,
                    "21": -0.187697172164917,
                    "22": -0.136936217546463,
                    "23": -0.13818031549453735,
                    "24": -0.11313551664352417,
                    "25": -0.06765805184841156,
                    "26": -0.20767609775066376,
                    "27": -0.10168394446372986,
                    "28": -0.7529315948486328,
                    "29": -0.09958218038082123,
                    "30": -0.383897602558136,
                    "31": 0.13065077364444733,
                    "32": -0.6760131120681763,
                    "33": -0.4181113839149475,
                    "34": -0.2907290756702423,
                    "35": 0.3581911623477936,
                    "36": 0.058399491012096405,
                    "37": 0.7149451971054077,
                    "38": -0.3884882628917694,
                    "39": 0.2098114788532257,
                    "40": -0.5733423233032227,
                    "41": 0.1889127641916275
                }
            },
            "10": {
                "bias": 0.04865780100226402,
                "weights": {
                    "0": -4.412841796875,
                    "1": -2.0965967178344727,
                    "2": -1.5404934883117676,
                    "3": 1.4499878883361816,
                    "4": -2.2369306087493896,
                    "5": 3.796917676925659,
                    "6": -2.1241679191589355,
                    "7": 2.433581829071045,
                    "8": -0.6553508043289185,
                    "9": -0.43121930956840515,
                    "10": 0.6888626217842102,
                    "11": -0.8920819163322449,
                    "12": 2.4749608039855957,
                    "13": -0.35858574509620667,
                    "14": -0.7240327000617981,
                    "15": 3.0779454708099365,
                    "16": -2.548909902572632,
                    "17": -1.6235473155975342,
                    "18": -0.5827130079269409,
                    "19": -4.064095497131348,
                    "20": -1.7073625326156616,
                    "21": 1.033889889717102,
                    "22": -1.2370529174804688,
                    "23": 1.8263742923736572,
                    "24": -0.5026800036430359,
                    "25": 0.32468026876449585,
                    "26": 0.6750136613845825,
                    "27": -0.055646106600761414,
                    "28": 2.6657874584198,
                    "29": 1.0957183837890625,
                    "30": 2.1681504249572754,
                    "31": -1.0774133205413818,
                    "32": 2.606633186340332,
                    "33": 2.4206552505493164,
                    "34": 1.1375606060028076,
                    "35": -0.27622777223587036,
                    "36": -0.20093847811222076,
                    "37": -4.212442874908447,
                    "38": 1.4766199588775635,
                    "39": 0.4426409900188446,
                    "40": 2.2262279987335205,
                    "41": -2.3660168647766113
                }
            },
            "11": {
                "bias": -0.17033086717128754,
                "weights": {
                    "0": -0.8930189609527588,
                    "1": -0.1528678983449936,
                    "2": -0.3961889445781708,
                    "3": 0.38603317737579346,
                    "4": -0.4405596852302551,
                    "5": 0.6454840302467346,
                    "6": -0.5072977542877197,
                    "7": 0.24937531352043152,
                    "8": -0.27632609009742737,
                    "9": -0.3855849504470825,
                    "10": 0.13174709677696228,
                    "11": -0.5207474231719971,
                    "12": 0.21600250899791718,
                    "13": -0.02438107132911682,
                    "14": 0.10494141280651093,
                    "15": 0.5094789266586304,
                    "16": -0.24732458591461182,
                    "17": -0.07947158068418503,
                    "18": 0.21513234078884125,
                    "19": -0.7262610197067261,
                    "20": -0.17527340352535248,
                    "21": 0.35060515999794006,
                    "22": -0.1609296053647995,
                    "23": 0.5840199589729309,
                    "24": -0.12468568235635757,
                    "25": 0.18884947896003723,
                    "26": -0.18822938203811646,
                    "27": 0.06945846229791641,
                    "28": 0.31370803713798523,
                    "29": 0.039753809571266174,
                    "30": 0.4906827509403229,
                    "31": -0.41937747597694397,
                    "32": 0.56927889585495,
                    "33": 0.24179503321647644,
                    "34": 0.44954535365104675,
                    "35": 0.10343603044748306,
                    "36": 0.05317385867238045,
                    "37": -0.6078231930732727,
                    "38": 0.055782873183488846,
                    "39": 0.3097795248031616,
                    "40": 0.1046609878540039,
                    "41": -0.5353166460990906
                }
            },
            "12": {
                "bias": -0.06956063210964203,
                "weights": {
                    "0": 0.3692112863063812,
                    "1": 0.0005494534270837903,
                    "2": 0.2682749330997467,
                    "3": -0.17676404118537903,
                    "4": 0.11523137241601944,
                    "5": -0.6680114269256592,
                    "6": 0.18273787200450897,
                    "7": -0.34641462564468384,
                    "8": 0.1535450965166092,
                    "9": 0.06747126579284668,
                    "10": -0.07580947875976562,
                    "11": -0.13781040906906128,
                    "12": -0.30756106972694397,
                    "13": 0.1803872436285019,
                    "14": 0.06634826213121414,
                    "15": -0.47127801179885864,
                    "16": 0.21907801926136017,
                    "17": 0.186248317360878,
                    "18": -0.04491008445620537,
                    "19": 0.24668729305267334,
                    "20": 0.2675619125366211,
                    "21": -0.22733861207962036,
                    "22": -0.14017631113529205,
                    "23": -0.2916097044944763,
                    "24": 0.1426621526479721,
                    "25": -0.232051283121109,
                    "26": -0.09599049389362335,
                    "27": -0.11274624615907669,
                    "28": -0.5108398199081421,
                    "29": -0.38063615560531616,
                    "30": -0.2914559245109558,
                    "31": 0.11148358881473541,
                    "32": -0.3947792053222656,
                    "33": -0.14479205012321472,
                    "34": -0.09551196545362473,
                    "35": 0.035118818283081055,
                    "36": -0.07370182126760483,
                    "37": 0.49605628848075867,
                    "38": -0.27038559317588806,
                    "39": -0.07239129394292831,
                    "40": -0.42607367038726807,
                    "41": 0.17865966260433197
                }
            },
            "13": {
                "bias": -0.31755974888801575,
                "weights": {
                    "0": 0.006842011120170355,
                    "1": -0.042336851358413696,
                    "2": -0.3257710337638855,
                    "3": -0.0037897820584475994,
                    "4": -0.1300680786371231,
                    "5": -0.18817993998527527,
                    "6": -0.24983491003513336,
                    "7": -0.12775595486164093,
                    "8": -0.1277550458908081,
                    "9": -0.11392322927713394,
                    "10": -0.24545837938785553,
                    "11": -0.24502336978912354,
                    "12": 0.005174053367227316,
                    "13": -0.11265049129724503,
                    "14": -0.33101195096969604,
                    "15": -0.023527180776000023,
                    "16": 0.016187390312552452,
                    "17": -0.015130710788071156,
                    "18": -0.32587939500808716,
                    "19": -0.20255835354328156,
                    "20": -0.12350050359964371,
                    "21": -0.041280779987573624,
                    "22": -0.1047353744506836,
                    "23": -0.20186980068683624,
                    "24": -0.14636333286762238,
                    "25": -0.12355981767177582,
                    "26": 0.013828147202730179,
                    "27": 0.01700780913233757,
                    "28": 0.002574366983026266,
                    "29": -0.22770565748214722,
                    "30": -0.19310887157917023,
                    "31": -0.006071546580642462,
                    "32": 0.03505223989486694,
                    "33": -0.07888727635145187,
                    "34": -0.004272110760211945,
                    "35": -0.03232709690928459,
                    "36": -0.2882777452468872,
                    "37": 0.13587717711925507,
                    "38": -0.16324128210544586,
                    "39": 0.12369709461927414,
                    "40": -0.10521721839904785,
                    "41": -0.16736963391304016
                }
            },
            "14": {
                "bias": 0.2331504076719284,
                "weights": {
                    "0": 2.436737298965454,
                    "1": 0.7498109936714172,
                    "2": 0.8544432520866394,
                    "3": -0.9942178726196289,
                    "4": 1.3083738088607788,
                    "5": -2.125999927520752,
                    "6": 1.1065889596939087,
                    "7": -1.3386896848678589,
                    "8": 0.48980286717414856,
                    "9": 0.1867648959159851,
                    "10": -0.03408600389957428,
                    "11": 0.3655804395675659,
                    "12": -1.1027557849884033,
                    "13": 0.09008031338453293,
                    "14": 0.5829083323478699,
                    "15": -1.739888072013855,
                    "16": 1.5662953853607178,
                    "17": 0.8463248014450073,
                    "18": 0.5013973712921143,
                    "19": 1.6169847249984741,
                    "20": 0.9308573007583618,
                    "21": -0.8531654477119446,
                    "22": 0.47742846608161926,
                    "23": -1.0877788066864014,
                    "24": 0.4198012351989746,
                    "25": -0.4743676781654358,
                    "26": -0.20716148614883423,
                    "27": -0.24976852536201477,
                    "28": -1.341667652130127,
                    "29": -0.7669520378112793,
                    "30": -1.0728875398635864,
                    "31": 0.40922555327415466,
                    "32": -1.0307713747024536,
                    "33": -1.3964210748672485,
                    "34": -0.44361811876296997,
                    "35": 0.10421416163444519,
                    "36": 0.22611893713474274,
                    "37": 1.73041832447052,
                    "38": -0.49506309628486633,
                    "39": -0.3550560772418976,
                    "40": -1.1813557147979736,
                    "41": 0.7560284733772278
                }
            },
            "15": {
                "bias": 0.025594457983970642,
                "weights": {
                    "0": 0.36622393131256104,
                    "1": 0.7665805220603943,
                    "2": -0.4268217086791992,
                    "3": 0.08470188826322556,
                    "4": -0.3335927724838257,
                    "5": -0.5510942935943604,
                    "6": -0.2418244481086731,
                    "7": -0.3498159646987915,
                    "8": -0.6000925898551941,
                    "9": 0.40777531266212463,
                    "10": -0.5908082723617554,
                    "11": 0.4698197543621063,
                    "12": -1.2020063400268555,
                    "13": 0.4335598647594452,
                    "14": -0.673846960067749,
                    "15": -0.2397184818983078,
                    "16": 0.04851062223315239,
                    "17": 0.5848324298858643,
                    "18": -0.23146723210811615,
                    "19": 1.190157413482666,
                    "20": -0.11696653813123703,
                    "21": 0.2261877804994583,
                    "22": -0.4264865815639496,
                    "23": -0.010931703262031078,
                    "24": -0.472188264131546,
                    "25": 0.2665887176990509,
                    "26": -0.6801021695137024,
                    "27": 0.21453522145748138,
                    "28": -1.3871896266937256,
                    "29": 0.053064629435539246,
                    "30": -0.96912682056427,
                    "31": 0.31155505776405334,
                    "32": -1.0983912944793701,
                    "33": 0.0023995633237063885,
                    "34": -0.7691993713378906,
                    "35": 0.8060445785522461,
                    "36": -0.2999646067619324,
                    "37": 1.6959867477416992,
                    "38": -0.6555052399635315,
                    "39": 0.7300344109535217,
                    "40": -1.3239179849624634,
                    "41": 0.8360443711280823
                }
            },
            "16": {
                "bias": -0.1355835199356079,
                "weights": {
                    "0": 1.157484531402588,
                    "1": 0.32679927349090576,
                    "2": 0.4779927134513855,
                    "3": -0.2988257110118866,
                    "4": 0.31189367175102234,
                    "5": -0.8769311904907227,
                    "6": 0.43220484256744385,
                    "7": -0.8026901483535767,
                    "8": 0.3653464913368225,
                    "9": 0.12171974033117294,
                    "10": -0.3059498965740204,
                    "11": 0.18787968158721924,
                    "12": -0.6825314164161682,
                    "13": 0.22233928740024567,
                    "14": 0.34881433844566345,
                    "15": -0.6803672313690186,
                    "16": 0.7897032499313354,
                    "17": 0.4773578941822052,
                    "18": -0.01677676849067211,
                    "19": 0.6654014587402344,
                    "20": 0.5955542922019958,
                    "21": -0.2526988685131073,
                    "22": 0.1483921855688095,
                    "23": -0.689550518989563,
                    "24": -0.009946295991539955,
                    "25": -0.13196545839309692,
                    "26": -0.011610406450927258,
                    "27": -0.024858128279447556,
                    "28": -0.4881953001022339,
                    "29": -0.5427754521369934,
                    "30": -0.7216962575912476,
                    "31": 0.07804794609546661,
                    "32": -0.4990973174571991,
                    "33": -0.45709195733070374,
                    "34": -0.19037353992462158,
                    "35": 0.1479746252298355,
                    "36": -0.038520749658346176,
                    "37": 0.8086051940917969,
                    "38": -0.29593250155448914,
                    "39": -0.20276404917240143,
                    "40": -0.4087282419204712,
                    "41": 0.5708215236663818
                }
            },
            "17": {
                "bias": 0.2773624658584595,
                "weights": {
                    "0": 1.4970520734786987,
                    "1": 0.8768351078033447,
                    "2": 0.26117029786109924,
                    "3": -0.4646914601325989,
                    "4": 0.6517350673675537,
                    "5": -1.6033639907836914,
                    "6": 0.5819007158279419,
                    "7": -0.9320035576820374,
                    "8": 0.0855708122253418,
                    "9": 0.3563871681690216,
                    "10": -0.5237147808074951,
                    "11": 0.4293835461139679,
                    "12": -1.1619036197662354,
                    "13": 0.11686758697032928,
                    "14": -0.16556571424007416,
                    "15": -1.2346720695495605,
                    "16": 0.8603705167770386,
                    "17": 0.8802239298820496,
                    "18": 0.10310814529657364,
                    "19": 1.701994776725769,
                    "20": 0.5524891018867493,
                    "21": -0.2411990910768509,
                    "22": 0.31770509481430054,
                    "23": -0.6322122812271118,
                    "24": -0.015987051650881767,
                    "25": -0.05883902683854103,
                    "26": -0.6246930360794067,
                    "27": 0.2403598129749298,
                    "28": -1.3897784948349,
                    "29": -0.3964812159538269,
                    "30": -0.9324646592140198,
                    "31": 0.4706155061721802,
                    "32": -0.9382912516593933,
                    "33": -0.6414077281951904,
                    "34": -0.4700242280960083,
                    "35": 0.44540154933929443,
                    "36": 0.07924175262451172,
                    "37": 1.9227428436279297,
                    "38": -0.818514883518219,
                    "39": -0.06414227932691574,
                    "40": -1.1036076545715332,
                    "41": 0.9934350848197937
                }
            },
            "18": {
                "bias": -0.041112471371889114,
                "weights": {
                    "0": 0.46396520733833313,
                    "1": -0.094602569937706,
                    "2": 0.1997302621603012,
                    "3": -0.535237193107605,
                    "4": -0.017460213974118233,
                    "5": -0.4322775900363922,
                    "6": 0.06655099987983704,
                    "7": -0.4278387725353241,
                    "8": -0.023675940930843353,
                    "9": -0.06637991964817047,
                    "10": -0.18339282274246216,
                    "11": 0.08459176123142242,
                    "12": -0.1216929480433464,
                    "13": -0.16997306048870087,
                    "14": 0.04764367640018463,
                    "15": -0.4632745683193207,
                    "16": 0.0005404514959082007,
                    "17": 0.21144983172416687,
                    "18": 0.20439133048057556,
                    "19": 0.26399412751197815,
                    "20": -0.06425753980875015,
                    "21": -0.2670634984970093,
                    "22": -0.053551085293293,
                    "23": -0.4489319920539856,
                    "24": -0.2234225571155548,
                    "25": -0.09690626710653305,
                    "26": -0.03692106157541275,
                    "27": -0.16970759630203247,
                    "28": -0.16636358201503754,
                    "29": -0.1545858383178711,
                    "30": -0.34906795620918274,
                    "31": -0.2924972176551819,
                    "32": -0.09630662202835083,
                    "33": -0.34102335572242737,
                    "34": -0.05888262763619423,
                    "35": 0.140859916806221,
                    "36": -0.03894960880279541,
                    "37": 0.3956945240497589,
                    "38": -0.23405881226062775,
                    "39": -0.16980282962322235,
                    "40": -0.13787949085235596,
                    "41": -0.21394787728786469
                }
            },
            "19": {
                "bias": 0.26184365153312683,
                "weights": {
                    "0": 4.034846305847168,
                    "1": 1.613600730895996,
                    "2": 1.3559207916259766,
                    "3": -1.5692670345306396,
                    "4": 2.059976816177368,
                    "5": -3.5246732234954834,
                    "6": 2.1003987789154053,
                    "7": -2.239441394805908,
                    "8": 0.6517966389656067,
                    "9": 0.27777099609375,
                    "10": -0.728813886642456,
                    "11": 0.8709487318992615,
                    "12": -2.1769888401031494,
                    "13": 0.3418029546737671,
                    "14": 0.8407557606697083,
                    "15": -2.8135619163513184,
                    "16": 2.2884106636047363,
                    "17": 1.3892698287963867,
                    "18": 0.5182111859321594,
                    "19": 3.388712167739868,
                    "20": 1.6106834411621094,
                    "21": -1.0325640439987183,
                    "22": 0.9507944583892822,
                    "23": -1.5425413846969604,
                    "24": 0.5528051257133484,
                    "25": -0.4124402403831482,
                    "26": -0.45997992157936096,
                    "27": 0.006829028483480215,
                    "28": -2.2174232006073,
                    "29": -1.108862042427063,
                    "30": -1.906982660293579,
                    "31": 0.8758633732795715,
                    "32": -1.9697233438491821,
                    "33": -2.0973498821258545,
                    "34": -1.0930485725402832,
                    "35": 0.2789376974105835,
                    "36": 0.2370525747537613,
                    "37": 3.4334044456481934,
                    "38": -1.1649179458618164,
                    "39": -0.4695805013179779,
                    "40": -2.07100248336792,
                    "41": 1.7634259462356567
                }
            },
            "20": {
                "bias": -0.19127094745635986,
                "weights": {
                    "0": -1.0601385831832886,
                    "1": -0.6675698161125183,
                    "2": -0.3850613236427307,
                    "3": 0.13153545558452606,
                    "4": -0.3389798104763031,
                    "5": 0.6664847731590271,
                    "6": -0.7062314748764038,
                    "7": 0.6806833148002625,
                    "8": -0.21863120794296265,
                    "9": -0.08350462466478348,
                    "10": -0.13457335531711578,
                    "11": -0.2036241590976715,
                    "12": 0.5605603456497192,
                    "13": -0.03527750447392464,
                    "14": -0.4655923843383789,
                    "15": 1.2046785354614258,
                    "16": -0.7122350931167603,
                    "17": -0.12810581922531128,
                    "18": -0.3196660280227661,
                    "19": -0.6640849113464355,
                    "20": -0.6338192820549011,
                    "21": 0.0690649151802063,
                    "22": -0.1302955001592636,
                    "23": 0.10696830600500107,
                    "24": -0.012248310260474682,
                    "25": -0.3497966229915619,
                    "26": 0.23086470365524292,
                    "27": -0.29683831334114075,
                    "28": 0.659733772277832,
                    "29": -0.05949639901518822,
                    "30": 0.5100381970405579,
                    "31": -0.21132886409759521,
                    "32": 0.7339583039283752,
                    "33": 0.9685206413269043,
                    "34": 0.12630848586559296,
                    "35": 0.38216453790664673,
                    "36": -0.153542160987854,
                    "37": -0.6453750133514404,
                    "38": 0.22169636189937592,
                    "39": 0.42724817991256714,
                    "40": 0.3256665766239166,
                    "41": -0.7104870080947876
                }
            }
        },
        {
            "circle": {
                "bias": 0.9051931500434875,
                "weights": {
                    "0": 0.8421659469604492,
                    "1": -0.726566731929779,
                    "2": 0.2324518859386444,
                    "3": -2.3378493785858154,
                    "4": -0.9863739609718323,
                    "5": -0.20389926433563232,
                    "6": -1.9058830738067627,
                    "7": -1.3496495485305786,
                    "8": 4.910340309143066,
                    "9": -1.016835331916809,
                    "10": 5.948324680328369,
                    "11": 1.2003774642944336,
                    "12": -0.8238901495933533,
                    "13": 0.0411059707403183,
                    "14": -2.8942530155181885,
                    "15": -2.078713893890381,
                    "16": -1.26840341091156,
                    "17": -2.241823434829712,
                    "18": -0.5233602523803711,
                    "19": -4.926773548126221,
                    "20": 1.6371493339538574
                }
            },
            "idle": {
                "bias": -0.9617835283279419,
                "weights": {
                    "0": -1.0419825315475464,
                    "1": 0.8396884202957153,
                    "2": -0.29008132219314575,
                    "3": 2.2191691398620605,
                    "4": 1.1394699811935425,
                    "5": 0.30348923802375793,
                    "6": 1.765282154083252,
                    "7": 1.5462349653244019,
                    "8": -5.014703750610352,
                    "9": 0.8817050457000732,
                    "10": -5.878721714019775,
                    "11": -1.08791184425354,
                    "12": 0.7537720203399658,
                    "13": 0.0393390990793705,
                    "14": 2.7782492637634277,
                    "15": 2.0862317085266113,
                    "16": 1.3345189094543457,
                    "17": 2.272951602935791,
                    "18": 0.7484720945358276,
                    "19": 4.990530490875244,
                    "20": -1.4319571256637573
                }
            }
        }
    ],
    "outputLookup": true,
    "inputLookup": false,
    "activation": "sigmoid",
    "trainOpts": {
        "iterations": 20000,
        "errorThresh": 0.005,
        "log": false,
        "logPeriod": 10,
        "learningRate": 0.3,
        "momentum": 0.1,
        "callbackPeriod": 10,
        "beta1": 0.9,
        "beta2": 0.999,
        "epsilon": 1e-8
    }
}